<?xml version="1.0"?>
<opencv_storage>
<cascade>
  <stageType>BOOST</stageType>
  <featureType>HAAR</featureType>
  <height>24</height>
  <width>24</width>
  <stageParams>
    <boostType>GAB</boostType>
    <minHitRate>9.9500000476837158e-01</minHitRate>
    <maxFalseAlarm>5.0000000000000000e-01</maxFalseAlarm>
    <weightTrimRate>9.4999998807907104e-01</weightTrimRate>
    <maxDepth>1</maxDepth>
    <maxWeakCount>100</maxWeakCount></stageParams>
  <featureParams>
    <maxCatCount>0</maxCatCount>
    <featSize>1</featSize>
    <mode>BASIC</mode></featureParams>
  <stageNum>12</stageNum>
  <stages>
    <!-- stage 0 -->
    <_>
      <maxWeakCount>2</maxWeakCount>
      <stageThreshold>2.9021686315536499e-01</stageThreshold>
      <weakClassifiers>
        <_>
          <internalNodes>
            0 -1 2 -7.9681223724037409e-05</internalNodes>
          <leafValues>
            9.8533660173416138e-01 -5.8974361419677734e-01</leafValues></_>
        <_>
          <internalNodes>
            0 -1 10 -6.6344327933620661e-05</internalNodes>
          <leafValues>
            9.9157178401947021e-01 -6.9511973857879639e-01</leafValues></_></weakClassifiers></_>
    <!-- stage 1 -->
    <_>
      <maxWeakCount>2</maxWeakCount>
      <stageThreshold>3.1133893132209778e-01</stageThreshold>
      <weakClassifiers>
        <_>
          <internalNodes>
            0 -1 15 3.8746897189412266e-05</internalNodes>
          <leafValues>
            -4.7601476311683655e-01 9.7025525569915771e-01</leafValues></_>
        <_>
          <internalNodes>
            0 -1 0 -8.6454019765369594e-05</internalNodes>
          <leafValues>
            9.4101858139038086e-01 -6.5891635417938232e-01</leafValues></_></weakClassifiers></_>
    <!-- stage 2 -->
    <_>
      <maxWeakCount>2</maxWeakCount>
      <stageThreshold>3.4860411286354065e-01</stageThreshold>
      <weakClassifiers>
        <_>
          <internalNodes>
            0 -1 16 -6.9189423811621964e-05</internalNodes>
          <leafValues>
            9.7442799806594849e-01 -3.9219015836715698e-01</leafValues></_>
        <_>
          <internalNodes>
            0 -1 9 3.7879799492657185e-05</internalNodes>
          <leafValues>
            -6.2582385540008545e-01 9.4219392538070679e-01</leafValues></_></weakClassifiers></_>
    <!-- stage 3 -->
    <_>
      <maxWeakCount>1</maxWeakCount>
      <stageThreshold>9.0317887067794800e-01</stageThreshold>
      <weakClassifiers>
        <_>
          <internalNodes>
            0 -1 3 -2.1784618496894836e-01</internalNodes>
          <leafValues>
            -1. 9.0317887067794800e-01</leafValues></_></weakClassifiers></_>
    <!-- stage 4 -->
    <_>
      <maxWeakCount>1</maxWeakCount>
      <stageThreshold>9.1813600063323975e-01</stageThreshold>
      <weakClassifiers>
        <_>
          <internalNodes>
            0 -1 6 -2.0269265770912170e-01</internalNodes>
          <leafValues>
            -9.2226147651672363e-01 9.1813600063323975e-01</leafValues></_></weakClassifiers></_>
    <!-- stage 5 -->
    <_>
      <maxWeakCount>1</maxWeakCount>
      <stageThreshold>9.2760944366455078e-01</stageThreshold>
      <weakClassifiers>
        <_>
          <internalNodes>
            0 -1 11 2.5606721639633179e-01</internalNodes>
          <leafValues>
            9.2760944366455078e-01 -1.</leafValues></_></weakClassifiers></_>
    <!-- stage 6 -->
    <_>
      <maxWeakCount>1</maxWeakCount>
      <stageThreshold>9.1979843378067017e-01</stageThreshold>
      <weakClassifiers>
        <_>
          <internalNodes>
            0 -1 8 9.9911183118820190e-02</internalNodes>
          <leafValues>
            9.1979843378067017e-01 -9.4366198778152466e-01</leafValues></_></weakClassifiers></_>
    <!-- stage 7 -->
    <_>
      <maxWeakCount>4</maxWeakCount>
      <stageThreshold>2.8146952390670776e-01</stageThreshold>
      <weakClassifiers>
        <_>
          <internalNodes>
            0 -1 4 1.8423116207122803e-01</internalNodes>
          <leafValues>
            8.8891184329986572e-01 -9.4117647409439087e-01</leafValues></_>
        <_>
          <internalNodes>
            0 -1 13 5.0875183660537004e-04</internalNodes>
          <leafValues>
            -6.5339553356170654e-01 8.4687793254852295e-01</leafValues></_>
        <_>
          <internalNodes>
            0 -1 5 -5.2203125960659236e-05</internalNodes>
          <leafValues>
            8.6860322952270508e-01 -7.0828032493591309e-01</leafValues></_>
        <_>
          <internalNodes>
            0 -1 17 -5.4530319175682962e-05</internalNodes>
          <leafValues>
            7.5423353910446167e-01 -7.3334282636642456e-01</leafValues></_></weakClassifiers></_>
    <!-- stage 8 -->
    <_>
      <maxWeakCount>1</maxWeakCount>
      <stageThreshold>9.1574090719223022e-01</stageThreshold>
      <weakClassifiers>
        <_>
          <internalNodes>
            0 -1 7 -1.9034923613071442e-01</internalNodes>
          <leafValues>
            -9.2753624916076660e-01 9.1574090719223022e-01</leafValues></_></weakClassifiers></_>
    <!-- stage 9 -->
    <_>
      <maxWeakCount>2</maxWeakCount>
      <stageThreshold>3.9001774787902832e-01</stageThreshold>
      <weakClassifiers>
        <_>
          <internalNodes>
            0 -1 10 -6.6344327933620661e-05</internalNodes>
          <leafValues>
            9.9280250072479248e-01 -5.0083196163177490e-01</leafValues></_>
        <_>
          <internalNodes>
            0 -1 12 1.3711309432983398e-01</internalNodes>
          <leafValues>
            8.9084970951080322e-01 -9.7880697250366211e-01</leafValues></_></weakClassifiers></_>
    <!-- stage 10 -->
    <_>
      <maxWeakCount>2</maxWeakCount>
      <stageThreshold>3.0964142084121704e-01</stageThreshold>
      <weakClassifiers>
        <_>
          <internalNodes>
            0 -1 10 -1.6400437743868679e-04</internalNodes>
          <leafValues>
            9.9011456966400146e-01 -4.9328857660293579e-01</leafValues></_>
        <_>
          <internalNodes>
            0 -1 14 6.6510096075944602e-05</internalNodes>
          <leafValues>
            -6.8047314882278442e-01 9.3441522121429443e-01</leafValues></_></weakClassifiers></_>
    <!-- stage 11 -->
    <_>
      <maxWeakCount>1</maxWeakCount>
      <stageThreshold>9.5977747440338135e-01</stageThreshold>
      <weakClassifiers>
        <_>
          <internalNodes>
            0 -1 1 -1.1280172318220139e-01</internalNodes>
          <leafValues>
            -1. 9.5977747440338135e-01</leafValues></_></weakClassifiers></_></stages>
  <features>
    <_>
      <rects>
        <_>
          0 0 5 8 -1.</_>
        <_>
          0 4 5 4 2.</_></rects>
      <tilted>0</tilted></_>
    <_>
      <rects>
        <_>
          0 0 5 22 -1.</_>
        <_>
          0 11 5 11 2.</_></rects>
      <tilted>0</tilted></_>
    <_>
      <rects>
        <_>
          0 0 24 4 -1.</_>
        <_>
          8 0 8 4 3.</_></rects>
      <tilted>0</tilted></_>
    <_>
      <rects>
        <_>
          0 0 24 16 -1.</_>
        <_>
          0 8 24 8 2.</_></rects>
      <tilted>0</tilted></_>
    <_>
      <rects>
        <_>
          0 0 24 24 -1.</_>
        <_>
          0 8 24 8 3.</_></rects>
      <tilted>0</tilted></_>
    <_>
      <rects>
        <_>
          0 3 2 8 -1.</_>
        <_>
          0 7 2 4 2.</_></rects>
      <tilted>0</tilted></_>
    <_>
      <rects>
        <_>
          0 7 24 16 -1.</_>
        <_>
          8 7 8 16 3.</_></rects>
      <tilted>0</tilted></_>
    <_>
      <rects>
        <_>
          0 14 24 10 -1.</_>
        <_>
          12 14 12 10 2.</_></rects>
      <tilted>0</tilted></_>
    <_>
      <rects>
        <_>
          0 15 24 5 -1.</_>
        <_>
          12 15 12 5 2.</_></rects>
      <tilted>0</tilted></_>
    <_>
      <rects>
        <_>
          0 16 3 8 -1.</_>
        <_>
          0 20 3 4 2.</_></rects>
      <tilted>0</tilted></_>
    <_>
      <rects>
        <_>
          0 21 10 3 -1.</_>
        <_>
          5 21 5 3 2.</_></rects>
      <tilted>0</tilted></_>
    <_>
      <rects>
        <_>
          1 8 23 16 -1.</_>
        <_>
          1 16 23 8 2.</_></rects>
      <tilted>0</tilted></_>
    <_>
      <rects>
        <_>
          6 0 18 6 -1.</_>
        <_>
          15 0 9 6 2.</_></rects>
      <tilted>0</tilted></_>
    <_>
      <rects>
        <_>
          10 22 14 2 -1.</_>
        <_>
          17 22 7 2 2.</_></rects>
      <tilted>0</tilted></_>
    <_>
      <rects>
        <_>
          14 21 10 3 -1.</_>
        <_>
          19 21 5 3 2.</_></rects>
      <tilted>0</tilted></_>
    <_>
      <rects>
        <_>
          16 20 8 4 -1.</_>
        <_>
          20 20 4 4 2.</_></rects>
      <tilted>0</tilted></_>
    <_>
      <rects>
        <_>
          20 0 4 10 -1.</_>
        <_>
          20 5 4 5 2.</_></rects>
      <tilted>0</tilted></_>
    <_>
      <rects>
        <_>
          22 4 2 6 -1.</_>
        <_>
          22 7 2 3 2.</_></rects>
      <tilted>0</tilted></_></features></cascade>
</opencv_storage>
